-0.04470478743314743,0.40734973549842834,0.257220983505249,0.08503931015729904,0.5516878962516785,0.2062983214855194,-0.246475487947464,-0.6621419191360474,-0.38335323333740234,0.15822084248065948,0.127719447016716,0.2887532413005829,-0.49605125188827515,-0.3076480031013489,-0.04525760933756828
0.5559271574020386,0.10369323939085007,0.5505850315093994,1.3401224613189697,0.2303493320941925,0.03398093581199646,-0.5067095160484314,-0.9009225368499756,-0.5945672988891602,-0.1265920102596283,0.4698558449745178,-0.6687297224998474,-0.4961180090904236,-0.30489787459373474,-0.30887192487716675
1.1165708303451538,0.15394990146160126,-0.3814425766468048,0.5436017513275146,-0.055969078093767166,0.22792872786521912,-0.1446712613105774,-0.8895508050918579,0.5042951107025146,0.42466530203819275,0.02207653596997261,-0.012649879790842533,-0.26512983441352844,-0.9408471584320068,1.0367354154586792
-0.6438010334968567,0.5837153196334839,-0.4651945233345032,-0.9931219816207886,-0.40168917179107666,0.21214519441127777,0.6183082461357117,0.538694441318512,0.712171196937561,0.7149795293807983,-0.2672624886035919,-0.19878210127353668,0.1164705753326416,0.07264335453510284,-0.4678504467010498
-0.47492876648902893,-0.20864297449588776,0.004939967300742865,-0.9726284146308899,-0.2924811542034149,0.009599568322300911,0.9997770190238953,0.5776748657226563,-0.15989619493484497,0.711074948310852,-0.5890108346939087,0.1354915350675583,0.5770301222801208,0.9723000526428223,-0.7243378758430481
-1.011924386024475,-0.9025929570198059,0.6533124446868896,0.255330890417099,-0.48875418305397034,0.2501431405544281,0.4085860550403595,-0.23443323373794556,-0.6411263942718506,0.4381827414035797,-0.2879282832145691,0.4427037835121155,-0.21476657688617706,0.042111631482839584,-0.5247008204460144
-0.3169529438018799,-0.0715411901473999,0.48496565222740173,-0.7418670058250427,0.05571627616882324,0.15275244414806366,-1.0174988508224487,-0.483892560005188,-0.38868242502212524,-0.22336816787719727,-0.7703670263290405,0.2538978159427643,-0.7436343431472778,-0.28056249022483826,-0.10664404928684235
0.4618024230003357,0.5683104991912842,0.4413343667984009,-0.0998578667640686,0.7446459531784058,0.19664950668811798,-0.4849095344543457,-0.5553368330001831,-0.706789493560791,-0.13527698814868927,-0.3126601576805115,-0.04809201508760452,-1.4472264051437378,-1.0298994779586792,0.8424144983291626
0.5951168537139893,0.19447243213653564,-0.03610306233167648,0.8029144406318665,-0.18790790438652039,-0.18889352679252625,-0.18154168128967285,-0.7035180926322937,-0.0679437592625618,0.283134400844574,0.16608081758022308,0.34859731793403625,-0.3307666778564453,-0.8493443727493286,0.44623351097106934
0.557018518447876,-0.05975998938083649,-0.03854818642139435,0.8525037169456482,0.6261398792266846,-0.056519392877817154,-0.666334331035614,-1.1858832836151123,-0.09019874781370163,-0.010976708494126797,0.08872441947460175,-0.15811434388160706,0.046906471252441406,-0.446603000164032,0.6543812155723572
0.2661861479282379,0.20815065503120422,0.29335910081863403,0.37372708320617676,0.4692557454109192,-0.07261176407337189,-1.0923269987106323,-0.1582377701997757,-0.21415716409683228,-0.4954858124256134,-0.055739328265190125,0.39855894446372986,0.29837557673454285,0.3269658386707306,0.778774082660675
0.4698558449745178,-0.6687297224998474,-0.4961180090904236,-0.30489787459373474,-0.30887192487716675,0.15528948605060577,-0.03290822356939316,-0.4798448979854584,0.45252105593681335,0.0925024226307869,-0.015701448544859886,-0.5441237688064575,0.16533848643302917,0.1969393640756607,0.4512399137020111
-0.04558706283569336,-0.46839240193367004,-0.8389698266983032,-0.3886142373085022,-0.8915715217590332,0.10996808111667633,0.8932918310165405,0.7288902401924133,1.1481502056121826,1.3345763683319092,0.4835480749607086,-1.1622319221496582,-0.07884596288204193,-0.23443959653377533,-0.5613024234771729
-0.6239422559738159,-0.47198179364204407,-0.010066822171211243,-0.42034485936164856,-0.08725140243768692,-0.007313122041523457,0.7927634119987488,1.1072943210601807,0.10521398484706879,0.5910447239875793,0.1656394898891449,-0.00245099188759923,-0.19318026304244995,-0.30487126111984253,-0.9646890759468079
-0.616484522819519,-0.8572764992713928,0.21493270993232727,0.012146112509071827,-1.2865707874298096,-0.09891897439956665,0.3972066640853882,0.3078148365020752,-0.11062809824943542,0.5591440796852112,0.17256520688533783,0.5418975353240967,0.015820618718862534,0.09130585193634033,-0.9192841053009033
-0.37610360980033875,-0.3692246973514557,-0.3270052969455719,-0.14326289296150208,-0.2861788868904114,-0.10370813310146332,0.18582528829574585,0.17249178886413574,0.46071699261665344,-0.23657722771167755,-0.16428406536579132,-0.6114082336425781,0.1336147040128708,-0.05465240404009819,-0.8305277824401855
-0.04049385339021683,-0.08649737387895584,-0.4939641058444977,-0.3823680281639099,0.0630115196108818,0.02208315022289753,0.1631031632423401,0.09309906512498856,0.7297353148460388,0.3325866460800171,0.07250265032052994,-0.6301525235176086,-0.0644034743309021,-0.13283927738666534,0.030560093000531197
-0.04221665486693382,-0.2951523959636688,-0.4345785081386566,0.09798523783683777,-0.6908009648323059,-0.2019500881433487,0.5540995001792908,0.641753077507019,0.3709265887737274,1.3581889867782593,0.17857782542705536,-0.33734405040740967,0.10801218450069427,-0.22559940814971924,-0.042884461581707
0.27435094118118286,-0.3007315993309021,-0.19571101665496826,0.27450814843177795,-0.2740790545940399,0.12143149226903915,-0.13095372915267944,0.36005353927612305,0.4733425974845886,0.6932793259620667,0.012382698245346546,-0.43550434708595276,0.049418482929468155,-0.5286810398101807,-0.07656732201576233
0.05565577745437622,-0.2535731792449951,-0.1746361404657364,0.5684183239936829,0.13891497254371643,0.009952329099178314,-0.2786019742488861,0.03149603307247162,-0.10556565225124359,-0.06063956767320633,0.32862240076065063,-0.1665930598974228,-0.034875884652137756,-0.38088566064834595,0.1432192325592041
-0.12183910608291626,0.007803147193044424,0.08861397206783295,0.1606137603521347,0.03522097319364548,-0.18114472925662994,0.06261231005191803,0.18084226548671722,0.2410864382982254,0.15333260595798492,-0.163740336894989,-0.225237175822258,-0.153010293841362,0.1344875693321228,-0.20055557787418365
2.1736154556274414,-2.338137626647949
1.6680001020431519,-1.5505367517471313
0.919413685798645,-1.1178711652755737
2.659496545791626,-2.5820577144622803
1.6899601221084595,-1.5324887037277222
-2.0966079235076904,1.8843460083007813
-2.4919517040252686,2.4393491744995117
-2.539785385131836,2.6736812591552734
-3.047630786895752,3.022855043411255
-3.4114270210266113,3.454301595687866
1.4950671195983887,-1.498809576034546
1.4545376300811768,-1.3527601957321167
-1.8833556175231934,1.8791924715042114
-2.011855363845825,1.9436110258102417
2.3452348709106445,-2.3600013256073
2.027833938598633,-2.194873332977295